Language model created by QuickLM on Mon Sep 29 09:53:49 EDT 2014
Copyright (c) 1996-2010 Carnegie Mellon University and Alexander I. Rudnicky

The model is in standard ARPA format, designed by Doug Paul while he was at MITRE.

The code that was used to produce this language model is available in Open Source.
Please visit http://www.speech.cs.cmu.edu/tools/ for more information

The (fixed) discount mass is 0.5. The backoffs are computed using the ratio method.
This model based on a corpus of 62 sentences and 32 words

\data\
ngram 1=32
ngram 2=92
ngram 3=95

\1-grams:
-0.8491 </s> -0.3010
-0.8491 <s> -0.1961
-2.3404 ABORT -0.2347
-2.1644 AHEAD -0.2347
-2.1644 BACK -0.2347
-2.1644 BACKWARD -0.2347
-2.3404 BEGIN -0.2347
-2.1644 CLOSE -0.2347
-2.3404 EXIT -0.2347
-2.3404 FAST -0.2347
-2.3404 FASTER -0.2347
-2.1644 FORWARD -0.2347
-2.3404 GO -0.2347
-2.1644 GRASP -0.2278
-2.1644 GRIP -0.2278
-2.3404 HALT -0.2347
-2.0394 LEFT -0.2347
-1.8633 LOOK -0.2171
-1.6415 MOVE -0.2073
-2.6415 OFF -0.2347
-2.1644 OPEN -0.2347
-2.0394 RIGHT -0.2347
-1.6415 ROBO -0.2147
-2.3404 RUN -0.2347
-2.3404 SLOW -0.2347
-2.3404 SLOWER -0.2347
-2.1644 SPIN -0.2254
-2.3404 START -0.2347
-2.3404 STOP -0.2347
-2.1644 STRAIGHT -0.2347
-2.1644 TURN -0.2254
-2.1644 TWIST -0.2254

\2-grams:
-2.0934 <s> ABORT 0.0000
-2.0934 <s> AHEAD 0.0000
-2.0934 <s> BACK 0.0000
-2.0934 <s> BACKWARD 0.0000
-2.0934 <s> BEGIN 0.0000
-2.0934 <s> CLOSE 0.0000
-2.0934 <s> EXIT 0.0000
-2.0934 <s> FAST 0.0000
-2.0934 <s> FASTER 0.0000
-2.0934 <s> FORWARD 0.0000
-2.0934 <s> GO 0.0000
-1.6163 <s> GRASP 0.0000
-1.6163 <s> GRIP 0.0000
-2.0934 <s> HALT 0.0000
-2.0934 <s> LEFT 0.0000
-1.3153 <s> LOOK 0.0000
-1.0934 <s> MOVE 0.0000
-2.0934 <s> OPEN 0.0000
-2.0934 <s> RIGHT 0.0000
-1.0934 <s> ROBO 0.0000
-2.0934 <s> RUN 0.0000
-2.0934 <s> SLOW 0.0000
-2.0934 <s> SLOWER 0.0000
-1.6163 <s> SPIN 0.0000
-2.0934 <s> START 0.0000
-2.0934 <s> STOP 0.0000
-2.0934 <s> STRAIGHT 0.0000
-1.6163 <s> TURN 0.0000
-1.6163 <s> TWIST 0.0000
-0.3010 ABORT </s> -0.3010
-0.3010 AHEAD </s> -0.3010
-0.3010 BACK </s> -0.3010
-0.3010 BACKWARD </s> -0.3010
-0.3010 BEGIN </s> -0.3010
-0.3010 CLOSE </s> -0.3010
-0.3010 EXIT </s> -0.3010
-0.3010 FAST </s> -0.3010
-0.3010 FASTER </s> -0.3010
-0.3010 FORWARD </s> -0.3010
-0.3010 GO </s> -0.3010
-0.7782 GRASP </s> -0.3010
-0.7782 GRASP CLOSE 0.0000
-0.7782 GRASP OPEN 0.0000
-0.7782 GRIP </s> -0.3010
-0.7782 GRIP CLOSE 0.0000
-0.7782 GRIP OPEN 0.0000
-0.3010 HALT </s> -0.3010
-0.3010 LEFT </s> -0.3010
-1.0792 LOOK </s> -0.3010
-1.0792 LOOK AHEAD 0.0000
-1.0792 LOOK BACK 0.0000
-1.0792 LOOK BACKWARD 0.0000
-1.0792 LOOK FORWARD 0.0000
-1.0792 LOOK STRAIGHT 0.0000
-1.3010 MOVE </s> -0.3010
-1.3010 MOVE AHEAD 0.0000
-1.3010 MOVE BACK 0.0000
-1.3010 MOVE BACKWARD 0.0000
-1.3010 MOVE FAST 0.0000
-1.3010 MOVE FASTER 0.0000
-1.3010 MOVE FORWARD 0.0000
-1.3010 MOVE SLOW 0.0000
-1.3010 MOVE SLOWER 0.0000
-1.3010 MOVE STRAIGHT 0.0000
-0.3010 OFF </s> -0.3010
-0.3010 OPEN </s> -0.3010
-0.3010 RIGHT </s> -0.3010
-1.3010 ROBO </s> -0.3010
-1.3010 ROBO ABORT 0.0000
-1.3010 ROBO BEGIN 0.0000
-1.3010 ROBO EXIT 0.0000
-1.3010 ROBO GO 0.0000
-1.3010 ROBO HALT 0.0000
-1.3010 ROBO OFF 0.0000
-1.3010 ROBO RUN 0.0000
-1.3010 ROBO START 0.0000
-1.3010 ROBO STOP 0.0000
-0.3010 RUN </s> -0.3010
-0.3010 SLOW </s> -0.3010
-0.3010 SLOWER </s> -0.3010
-0.7782 SPIN </s> -0.3010
-0.7782 SPIN LEFT 0.0000
-0.7782 SPIN RIGHT 0.0000
-0.3010 START </s> -0.3010
-0.3010 STOP </s> -0.3010
-0.3010 STRAIGHT </s> -0.3010
-0.7782 TURN </s> -0.3010
-0.7782 TURN LEFT 0.0000
-0.7782 TURN RIGHT 0.0000
-0.7782 TWIST </s> -0.3010
-0.7782 TWIST LEFT 0.0000
-0.7782 TWIST RIGHT 0.0000

\3-grams:
-0.3010 <s> ABORT </s>
-0.3010 <s> AHEAD </s>
-0.3010 <s> BACK </s>
-0.3010 <s> BACKWARD </s>
-0.3010 <s> BEGIN </s>
-0.3010 <s> CLOSE </s>
-0.3010 <s> EXIT </s>
-0.3010 <s> FAST </s>
-0.3010 <s> FASTER </s>
-0.3010 <s> FORWARD </s>
-0.3010 <s> GO </s>
-0.7782 <s> GRASP </s>
-0.7782 <s> GRASP CLOSE
-0.7782 <s> GRASP OPEN
-0.7782 <s> GRIP </s>
-0.7782 <s> GRIP CLOSE
-0.7782 <s> GRIP OPEN
-0.3010 <s> HALT </s>
-0.3010 <s> LEFT </s>
-1.0792 <s> LOOK </s>
-1.0792 <s> LOOK AHEAD
-1.0792 <s> LOOK BACK
-1.0792 <s> LOOK BACKWARD
-1.0792 <s> LOOK FORWARD
-1.0792 <s> LOOK STRAIGHT
-1.3010 <s> MOVE </s>
-1.3010 <s> MOVE AHEAD
-1.3010 <s> MOVE BACK
-1.3010 <s> MOVE BACKWARD
-1.3010 <s> MOVE FAST
-1.3010 <s> MOVE FASTER
-1.3010 <s> MOVE FORWARD
-1.3010 <s> MOVE SLOW
-1.3010 <s> MOVE SLOWER
-1.3010 <s> MOVE STRAIGHT
-0.3010 <s> OPEN </s>
-0.3010 <s> RIGHT </s>
-1.3010 <s> ROBO </s>
-1.3010 <s> ROBO ABORT
-1.3010 <s> ROBO BEGIN
-1.3010 <s> ROBO EXIT
-1.3010 <s> ROBO GO
-1.3010 <s> ROBO HALT
-1.3010 <s> ROBO OFF
-1.3010 <s> ROBO RUN
-1.3010 <s> ROBO START
-1.3010 <s> ROBO STOP
-0.3010 <s> RUN </s>
-0.3010 <s> SLOW </s>
-0.3010 <s> SLOWER </s>
-0.7782 <s> SPIN </s>
-0.7782 <s> SPIN LEFT
-0.7782 <s> SPIN RIGHT
-0.3010 <s> START </s>
-0.3010 <s> STOP </s>
-0.3010 <s> STRAIGHT </s>
-0.7782 <s> TURN </s>
-0.7782 <s> TURN LEFT
-0.7782 <s> TURN RIGHT
-0.7782 <s> TWIST </s>
-0.7782 <s> TWIST LEFT
-0.7782 <s> TWIST RIGHT
-0.3010 GRASP CLOSE </s>
-0.3010 GRASP OPEN </s>
-0.3010 GRIP CLOSE </s>
-0.3010 GRIP OPEN </s>
-0.3010 LOOK AHEAD </s>
-0.3010 LOOK BACK </s>
-0.3010 LOOK BACKWARD </s>
-0.3010 LOOK FORWARD </s>
-0.3010 LOOK STRAIGHT </s>
-0.3010 MOVE AHEAD </s>
-0.3010 MOVE BACK </s>
-0.3010 MOVE BACKWARD </s>
-0.3010 MOVE FAST </s>
-0.3010 MOVE FASTER </s>
-0.3010 MOVE FORWARD </s>
-0.3010 MOVE SLOW </s>
-0.3010 MOVE SLOWER </s>
-0.3010 MOVE STRAIGHT </s>
-0.3010 ROBO ABORT </s>
-0.3010 ROBO BEGIN </s>
-0.3010 ROBO EXIT </s>
-0.3010 ROBO GO </s>
-0.3010 ROBO HALT </s>
-0.3010 ROBO OFF </s>
-0.3010 ROBO RUN </s>
-0.3010 ROBO START </s>
-0.3010 ROBO STOP </s>
-0.3010 SPIN LEFT </s>
-0.3010 SPIN RIGHT </s>
-0.3010 TURN LEFT </s>
-0.3010 TURN RIGHT </s>
-0.3010 TWIST LEFT </s>
-0.3010 TWIST RIGHT </s>

\end\
